digraph Tree {
node [shape=box, fontname="helvetica"] ;
edge [fontname="helvetica"] ;
0 [label="YearBuilt <= 1973.5\nsquared_error = 0.81\nsamples = 840\nvalue = 0.887"] ;
1 [label="SalePrice <= 172500.0\nsquared_error = 0.343\nsamples = 414\nvalue = 0.208"] ;
0 -> 1 [labeldistance=2.5, labelangle=45, headlabel="True"] ;
2 [label="TotalBsmtSF <= 1571.5\nsquared_error = 0.14\nsamples = 359\nvalue = 0.072"] ;
1 -> 2 ;
3 [label="GrLivArea <= 2467.5\nsquared_error = 0.099\nsamples = 354\nvalue = 0.051"] ;
2 -> 3 ;
4 [label="1stFlrSF <= 1787.0\nsquared_error = 0.078\nsamples = 352\nvalue = 0.04"] ;
3 -> 4 ;
5 [label="FullBath <= 2.5\nsquared_error = 0.067\nsamples = 351\nvalue = 0.034"] ;
4 -> 5 ;
6 [label="GarageArea <= 841.5\nsquared_error = 0.056\nsamples = 350\nvalue = 0.029"] ;
5 -> 6 ;
7 [label="GarageYrBlt <= 1995.5\nsquared_error = 0.034\nsamples = 346\nvalue = 0.017"] ;
6 -> 7 ;
8 [label="TotalBsmtSF <= 1257.0\nsquared_error = 0.012\nsamples = 332\nvalue = 0.006"] ;
7 -> 8 ;
9 [label="squared_error = 0.0\nsamples = 314\nvalue = 0.0"] ;
8 -> 9 ;
10 [label="GrLivArea <= 1259.5\nsquared_error = 0.21\nsamples = 18\nvalue = 0.111"] ;
8 -> 10 ;
11 [label="squared_error = 0.0\nsamples = 1\nvalue = 2.0"] ;
10 -> 11 ;
12 [label="squared_error = 0.0\nsamples = 17\nvalue = 0.0"] ;
10 -> 12 ;
13 [label="FullBath <= 1.5\nsquared_error = 0.49\nsamples = 14\nvalue = 0.286"] ;
7 -> 13 ;
14 [label="squared_error = 0.0\nsamples = 12\nvalue = 0.0"] ;
13 -> 14 ;
15 [label="squared_error = 0.0\nsamples = 2\nvalue = 2.0"] ;
13 -> 15 ;
16 [label="GarageArea <= 903.5\nsquared_error = 1.0\nsamples = 4\nvalue = 1.0"] ;
6 -> 16 ;
17 [label="squared_error = 0.0\nsamples = 2\nvalue = 2.0"] ;
16 -> 17 ;
18 [label="squared_error = 0.0\nsamples = 2\nvalue = 0.0"] ;
16 -> 18 ;
19 [label="squared_error = 0.0\nsamples = 1\nvalue = 2.0"] ;
5 -> 19 ;
20 [label="squared_error = 0.0\nsamples = 1\nvalue = 2.0"] ;
4 -> 20 ;
21 [label="squared_error = 0.0\nsamples = 2\nvalue = 2.0"] ;
3 -> 21 ;
22 [label="YearRemodAdd <= 1970.5\nsquared_error = 0.64\nsamples = 5\nvalue = 1.6"] ;
2 -> 22 ;
23 [label="squared_error = 0.0\nsamples = 4\nvalue = 2.0"] ;
22 -> 23 ;
24 [label="squared_error = 0.0\nsamples = 1\nvalue = 0.0"] ;
22 -> 24 ;
25 [label="GarageArea <= 417.5\nsquared_error = 0.774\nsamples = 55\nvalue = 1.091"] ;
1 -> 25 ;
26 [label="SalePrice <= 216250.0\nsquared_error = 0.465\nsamples = 16\nvalue = 0.312"] ;
25 -> 26 ;
27 [label="squared_error = 0.0\nsamples = 11\nvalue = 0.0"] ;
26 -> 27 ;
28 [label="1stFlrSF <= 1232.0\nsquared_error = 0.8\nsamples = 5\nvalue = 1.0"] ;
26 -> 28 ;
29 [label="squared_error = 0.0\nsamples = 2\nvalue = 2.0"] ;
28 -> 29 ;
30 [label="TotalBsmtSF <= 996.5\nsquared_error = 0.222\nsamples = 3\nvalue = 0.333"] ;
28 -> 30 ;
31 [label="squared_error = 0.0\nsamples = 1\nvalue = 1.0"] ;
30 -> 31 ;
32 [label="squared_error = 0.0\nsamples = 2\nvalue = 0.0"] ;
30 -> 32 ;
33 [label="GarageYrBlt <= 1945.0\nsquared_error = 0.55\nsamples = 39\nvalue = 1.41"] ;
25 -> 33 ;
34 [label="YearBuilt <= 1918.5\nsquared_error = 0.24\nsamples = 5\nvalue = 0.4"] ;
33 -> 34 ;
35 [label="squared_error = 0.0\nsamples = 2\nvalue = 1.0"] ;
34 -> 35 ;
36 [label="squared_error = 0.0\nsamples = 3\nvalue = 0.0"] ;
34 -> 36 ;
37 [label="GarageArea <= 509.0\nsquared_error = 0.423\nsamples = 34\nvalue = 1.559"] ;
33 -> 37 ;
38 [label="squared_error = 0.0\nsamples = 11\nvalue = 2.0"] ;
37 -> 38 ;
39 [label="GarageArea <= 571.5\nsquared_error = 0.488\nsamples = 23\nvalue = 1.348"] ;
37 -> 39 ;
40 [label="TotalBsmtSF <= 1572.0\nsquared_error = 0.245\nsamples = 7\nvalue = 0.571"] ;
39 -> 40 ;
41 [label="squared_error = 0.0\nsamples = 3\nvalue = 0.0"] ;
40 -> 41 ;
42 [label="squared_error = 0.0\nsamples = 4\nvalue = 1.0"] ;
40 -> 42 ;
43 [label="GrLivArea <= 2617.5\nsquared_error = 0.215\nsamples = 16\nvalue = 1.688"] ;
39 -> 43 ;
44 [label="squared_error = 0.0\nsamples = 11\nvalue = 2.0"] ;
43 -> 44 ;
45 [label="squared_error = 0.0\nsamples = 5\nvalue = 1.0"] ;
43 -> 45 ;
46 [label="GarageCars <= 2.5\nsquared_error = 0.379\nsamples = 426\nvalue = 1.547"] ;
0 -> 46 [labeldistance=2.5, labelangle=-45, headlabel="False"] ;
47 [label="FullBath <= 1.5\nsquared_error = 0.375\nsamples = 302\nvalue = 1.745"] ;
46 -> 47 ;
48 [label="YearRemodAdd <= 1988.0\nsquared_error = 0.916\nsamples = 45\nvalue = 0.8"] ;
47 -> 48 ;
49 [label="squared_error = 0.0\nsamples = 22\nvalue = 0.0"] ;
48 -> 49 ;
50 [label="GarageArea <= 393.5\nsquared_error = 0.594\nsamples = 23\nvalue = 1.565"] ;
48 -> 50 ;
51 [label="squared_error = 0.0\nsamples = 4\nvalue = 0.0"] ;
50 -> 51 ;
52 [label="SalePrice <= 280000.0\nsquared_error = 0.094\nsamples = 19\nvalue = 1.895"] ;
50 -> 52 ;
53 [label="squared_error = 0.0\nsamples = 17\nvalue = 2.0"] ;
52 -> 53 ;
54 [label="squared_error = 0.0\nsamples = 2\nvalue = 1.0"] ;
52 -> 54 ;
55 [label="SalePrice <= 274862.5\nsquared_error = 0.097\nsamples = 257\nvalue = 1.911"] ;
47 -> 55 ;
56 [label="GarageArea <= 354.0\nsquared_error = 0.056\nsamples = 241\nvalue = 1.959"] ;
55 -> 56 ;
57 [label="squared_error = 0.0\nsamples = 2\nvalue = 0.0"] ;
56 -> 57 ;
58 [label="OverallQual <= 8.5\nsquared_error = 0.024\nsamples = 239\nvalue = 1.975"] ;
56 -> 58 ;
59 [label="TotalBsmtSF <= 1731.0\nsquared_error = 0.013\nsamples = 236\nvalue = 1.987"] ;
58 -> 59 ;
60 [label="GarageArea <= 734.5\nsquared_error = 0.004\nsamples = 233\nvalue = 1.996"] ;
59 -> 60 ;
61 [label="squared_error = 0.0\nsamples = 232\nvalue = 2.0"] ;
60 -> 61 ;
62 [label="squared_error = 0.0\nsamples = 1\nvalue = 1.0"] ;
60 -> 62 ;
63 [label="YearRemodAdd <= 1991.0\nsquared_error = 0.222\nsamples = 3\nvalue = 1.333"] ;
59 -> 63 ;
64 [label="squared_error = 0.0\nsamples = 1\nvalue = 2.0"] ;
63 -> 64 ;
65 [label="squared_error = 0.0\nsamples = 2\nvalue = 1.0"] ;
63 -> 65 ;
66 [label="squared_error = 0.0\nsamples = 3\nvalue = 1.0"] ;
58 -> 66 ;
67 [label="TotalBsmtSF <= 1135.0\nsquared_error = 0.152\nsamples = 16\nvalue = 1.188"] ;
55 -> 67 ;
68 [label="squared_error = 0.0\nsamples = 2\nvalue = 2.0"] ;
67 -> 68 ;
69 [label="GarageYrBlt <= 1978.0\nsquared_error = 0.066\nsamples = 14\nvalue = 1.071"] ;
67 -> 69 ;
70 [label="squared_error = 0.0\nsamples = 1\nvalue = 2.0"] ;
69 -> 70 ;
71 [label="squared_error = 0.0\nsamples = 13\nvalue = 1.0"] ;
69 -> 71 ;
72 [label="1stFlrSF <= 1005.0\nsquared_error = 0.06\nsamples = 124\nvalue = 1.065"] ;
46 -> 72 ;
73 [label="squared_error = 0.0\nsamples = 4\nvalue = 2.0"] ;
72 -> 73 ;
74 [label="GrLivArea <= 1301.0\nsquared_error = 0.032\nsamples = 120\nvalue = 1.033"] ;
72 -> 74 ;
75 [label="squared_error = 0.0\nsamples = 2\nvalue = 2.0"] ;
74 -> 75 ;
76 [label="TotalBsmtSF <= 849.0\nsquared_error = 0.017\nsamples = 118\nvalue = 1.017"] ;
74 -> 76 ;
77 [label="squared_error = 0.0\nsamples = 1\nvalue = 2.0"] ;
76 -> 77 ;
78 [label="SalePrice <= 179375.0\nsquared_error = 0.008\nsamples = 117\nvalue = 1.009"] ;
76 -> 78 ;
79 [label="SalePrice <= 172500.0\nsquared_error = 0.222\nsamples = 3\nvalue = 1.333"] ;
78 -> 79 ;
80 [label="squared_error = 0.0\nsamples = 2\nvalue = 1.0"] ;
79 -> 80 ;
81 [label="squared_error = 0.0\nsamples = 1\nvalue = 2.0"] ;
79 -> 81 ;
82 [label="squared_error = 0.0\nsamples = 114\nvalue = 1.0"] ;
78 -> 82 ;
}